digraph Tree {
node [shape=box, fontname="helvetica"] ;
edge [fontname="helvetica"] ;
0 [label="X[2] <= 1.735\ngini = 0.5\nsamples = 622\nvalue = [311, 311]"] ;
1 [label="X[1] <= 24.5\ngini = 0.479\nsamples = 407\nvalue = [245, 162]"] ;
0 -> 1 [labeldistance=2.5, labelangle=45, headlabel="True"] ;
2 [label="X[3] <= 1.215\ngini = 0.475\nsamples = 162\nvalue = [63, 99]"] ;
1 -> 2 ;
3 [label="X[2] <= 0.255\ngini = 0.463\nsamples = 66\nvalue = [42, 24]"] ;
2 -> 3 ;
4 [label="gini = 0.0\nsamples = 18\nvalue = [18, 0]"] ;
3 -> 4 ;
5 [label="X[3] <= 1.0\ngini = 0.5\nsamples = 48\nvalue = [24, 24]"] ;
3 -> 5 ;
6 [label="gini = 0.456\nsamples = 37\nvalue = [13, 24]"] ;
5 -> 6 ;
7 [label="gini = 0.0\nsamples = 11\nvalue = [11, 0]"] ;
5 -> 7 ;
8 [label="X[0] <= 32.5\ngini = 0.342\nsamples = 96\nvalue = [21, 75]"] ;
2 -> 8 ;
9 [label="X[3] <= 1.695\ngini = 0.219\nsamples = 80\nvalue = [10, 70]"] ;
8 -> 9 ;
10 [label="gini = 0.054\nsamples = 36\nvalue = [1, 35]"] ;
9 -> 10 ;
11 [label="gini = 0.325\nsamples = 44\nvalue = [9, 35]"] ;
9 -> 11 ;
12 [label="X[3] <= 2.31\ngini = 0.43\nsamples = 16\nvalue = [11, 5]"] ;
8 -> 12 ;
13 [label="gini = 0.0\nsamples = 8\nvalue = [8, 0]"] ;
12 -> 13 ;
14 [label="gini = 0.469\nsamples = 8\nvalue = [3, 5]"] ;
12 -> 14 ;
15 [label="X[3] <= 2.3\ngini = 0.382\nsamples = 245\nvalue = [182, 63]"] ;
1 -> 15 ;
16 [label="X[0] <= 36.5\ngini = 0.238\nsamples = 145\nvalue = [125, 20]"] ;
15 -> 16 ;
17 [label="X[3] <= 0.97\ngini = 0.334\nsamples = 85\nvalue = [67, 18]"] ;
16 -> 17 ;
18 [label="gini = 0.071\nsamples = 27\nvalue = [26, 1]"] ;
17 -> 18 ;
19 [label="gini = 0.414\nsamples = 58\nvalue = [41, 17]"] ;
17 -> 19 ;
20 [label="X[3] <= 0.38\ngini = 0.064\nsamples = 60\nvalue = [58, 2]"] ;
16 -> 20 ;
21 [label="gini = 0.408\nsamples = 7\nvalue = [5, 2]"] ;
20 -> 21 ;
22 [label="gini = 0.0\nsamples = 53\nvalue = [53, 0]"] ;
20 -> 22 ;
23 [label="X[3] <= 2.42\ngini = 0.49\nsamples = 100\nvalue = [57, 43]"] ;
15 -> 23 ;
24 [label="X[2] <= 0.47\ngini = 0.26\nsamples = 13\nvalue = [2, 11]"] ;
23 -> 24 ;
25 [label="gini = 0.0\nsamples = 1\nvalue = [1, 0]"] ;
24 -> 25 ;
26 [label="gini = 0.153\nsamples = 12\nvalue = [1, 11]"] ;
24 -> 26 ;
27 [label="X[3] <= 3.475\ngini = 0.465\nsamples = 87\nvalue = [55, 32]"] ;
23 -> 27 ;
28 [label="gini = 0.231\nsamples = 30\nvalue = [26, 4]"] ;
27 -> 28 ;
29 [label="gini = 0.5\nsamples = 57\nvalue = [29, 28]"] ;
27 -> 29 ;
30 [label="X[0] <= 35.5\ngini = 0.425\nsamples = 215\nvalue = [66, 149]"] ;
0 -> 30 [labeldistance=2.5, labelangle=-45, headlabel="False"] ;
31 [label="X[1] <= 43.5\ngini = 0.297\nsamples = 116\nvalue = [21, 95]"] ;
30 -> 31 ;
32 [label="X[2] <= 2.4\ngini = 0.206\nsamples = 77\nvalue = [9, 68]"] ;
31 -> 32 ;
33 [label="X[2] <= 2.015\ngini = 0.282\nsamples = 53\nvalue = [9, 44]"] ;
32 -> 33 ;
34 [label="gini = 0.1\nsamples = 38\nvalue = [2, 36]"] ;
33 -> 34 ;
35 [label="gini = 0.498\nsamples = 15\nvalue = [7, 8]"] ;
33 -> 35 ;
36 [label="gini = 0.0\nsamples = 24\nvalue = [0, 24]"] ;
32 -> 36 ;
37 [label="X[3] <= 4.385\ngini = 0.426\nsamples = 39\nvalue = [12, 27]"] ;
31 -> 37 ;
38 [label="gini = 0.0\nsamples = 8\nvalue = [8, 0]"] ;
37 -> 38 ;
39 [label="X[2] <= 3.82\ngini = 0.225\nsamples = 31\nvalue = [4, 27]"] ;
37 -> 39 ;
40 [label="gini = 0.5\nsamples = 6\nvalue = [3, 3]"] ;
39 -> 40 ;
41 [label="gini = 0.077\nsamples = 25\nvalue = [1, 24]"] ;
39 -> 41 ;
42 [label="X[1] <= 60.5\ngini = 0.496\nsamples = 99\nvalue = [45, 54]"] ;
30 -> 42 ;
43 [label="X[3] <= 1.96\ngini = 0.422\nsamples = 53\nvalue = [16, 37]"] ;
42 -> 43 ;
44 [label="gini = 0.0\nsamples = 4\nvalue = [4, 0]"] ;
43 -> 44 ;
45 [label="X[0] <= 39.5\ngini = 0.37\nsamples = 49\nvalue = [12, 37]"] ;
43 -> 45 ;
46 [label="gini = 0.497\nsamples = 13\nvalue = [7, 6]"] ;
45 -> 46 ;
47 [label="gini = 0.239\nsamples = 36\nvalue = [5, 31]"] ;
45 -> 47 ;
48 [label="X[2] <= 6.36\ngini = 0.466\nsamples = 46\nvalue = [29, 17]"] ;
42 -> 48 ;
49 [label="X[3] <= 16.475\ngini = 0.346\nsamples = 36\nvalue = [28, 8]"] ;
48 -> 49 ;
50 [label="gini = 0.291\nsamples = 34\nvalue = [28, 6]"] ;
49 -> 50 ;
51 [label="gini = 0.0\nsamples = 2\nvalue = [0, 2]"] ;
49 -> 51 ;
52 [label="X[1] <= 77.0\ngini = 0.18\nsamples = 10\nvalue = [1, 9]"] ;
48 -> 52 ;
53 [label="gini = 0.0\nsamples = 1\nvalue = [1, 0]"] ;
52 -> 53 ;
54 [label="gini = 0.0\nsamples = 9\nvalue = [0, 9]"] ;
52 -> 54 ;
}
